digraph Tree {
node [shape=box, style="filled, rounded", color="black", fontname=helvetica] ;
edge [fontname=helvetica] ;
0 [label="radius_worst <= 16.8\ngini = 0.47\nsamples = 100.0%\nvalue = [0.63, 0.37]\nclass = disease", fillcolor="#f4cbad"] ;
1 [label="concave points_worst <= 0.14\n0.17\n68.9%\n[0.91, 0.09]\ndisease", fillcolor="#e88e4d"] ;
0 -> 1 [labeldistance=2.5, labelangle=45, headlabel="True"] ;
2 [label="texture_se <= 2.1\n0.03\n59.9%\n[0.99, 0.01]\ndisease", fillcolor="#e5833c"] ;
1 -> 2 ;
3 [label="texture_worst <= 32.68\n0.02\n55.7%\n[0.99, 0.01]\ndisease", fillcolor="#e5823b"] ;
2 -> 3 ;
4 [label="fractal_dimension_se <= 0.0\n0.01\n54.7%\n[1.0, 0.0]\ndisease", fillcolor="#e5823a"] ;
3 -> 4 ;
5 [label="0.2\n2.4%\n[0.89, 0.11]\ndisease", fillcolor="#e89152"] ;
4 -> 5 ;
6 [label="0.0\n52.2%\n[1.0, 0.0]\ndisease", fillcolor="#e58139"] ;
4 -> 6 ;
7 [label="fractal_dimension_se <= 0.0\n0.44\n1.0%\n[0.67, 0.33]\ndisease", fillcolor="#f2c09c"] ;
3 -> 7 ;
8 [label="0.0\n0.7%\n[1.0, 0.0]\ndisease", fillcolor="#e58139"] ;
7 -> 8 ;
9 [label="0.0\n0.3%\n[0.0, 1.0]\nno disease", fillcolor="#399de5"] ;
7 -> 9 ;
10 [label="area_se <= 48.98\n0.21\n4.2%\n[0.88, 0.12]\ndisease", fillcolor="#e89253"] ;
2 -> 10 ;
11 [label="0.0\n3.5%\n[1.0, 0.0]\ndisease", fillcolor="#e58139"] ;
10 -> 11 ;
12 [label="0.0\n0.7%\n[0.0, 1.0]\nno disease", fillcolor="#399de5"] ;
10 -> 12 ;
13 [label="texture_worst <= 26.9\n0.48\n9.0%\n[0.39, 0.61]\nno disease", fillcolor="#b8dcf6"] ;
1 -> 13 ;
14 [label="fractal_dimension_worst <= 0.12\n0.47\n5.5%\n[0.62, 0.38]\ndisease", fillcolor="#f5d0b5"] ;
13 -> 14 ;
15 [label="concave points_worst <= 0.14\n0.4\n4.8%\n[0.73, 0.27]\ndisease", fillcolor="#efb083"] ;
14 -> 15 ;
16 [label="0.0\n0.7%\n[0.0, 1.0]\nno disease", fillcolor="#399de5"] ;
15 -> 16 ;
17 [label="0.11\n4.2%\n[0.94, 0.06]\ndisease", fillcolor="#e78945"] ;
15 -> 17 ;
18 [label="0.0\n0.7%\n[0.0, 1.0]\nno disease", fillcolor="#399de5"] ;
14 -> 18 ;
19 [label="0.0\n3.5%\n[0.0, 1.0]\nno disease", fillcolor="#399de5"] ;
13 -> 19 ;
20 [label="area_se <= 30.32\n0.05\n31.1%\n[0.03, 0.97]\nno disease", fillcolor="#3fa0e6"] ;
0 -> 20 [labeldistance=2.5, labelangle=-45, headlabel="False"] ;
21 [label="texture_worst <= 19.91\n0.44\n3.5%\n[0.33, 0.67]\nno disease", fillcolor="#9ccef2"] ;
20 -> 21 ;
22 [label="0.0\n1.0%\n[1.0, 0.0]\ndisease", fillcolor="#e58139"] ;
21 -> 22 ;
23 [label="0.0\n2.4%\n[0.0, 1.0]\nno disease", fillcolor="#399de5"] ;
21 -> 23 ;
24 [label="0.0\n27.7%\n[0.0, 1.0]\nno disease", fillcolor="#399de5"] ;
20 -> 24 ;
}